{
    "num_layers": 3,
    "sizes": [
        47,
        60,
        9
    ],
    "biases": [
        [
            [
                -1.5303710285734262
            ],
            [
                -3.0763400718073433
            ],
            [
                -1.9379486885012442
            ],
            [
                -2.0613782542815615
            ],
            [
                -0.8065546065978975
            ],
            [
                -1.2294160879305294
            ],
            [
                -0.23541031200147022
            ],
            [
                -3.369418602410644
            ],
            [
                -1.8059801717142956
            ],
            [
                -1.5508804059931656
            ],
            [
                -2.0470502066383363
            ],
            [
                -3.1512176876027302
            ],
            [
                -1.8128389907216207
            ],
            [
                -1.7216957914565538
            ],
            [
                -2.9005186482097427
            ],
            [
                -3.4549285704984687
            ],
            [
                -1.7969182932922418
            ],
            [
                -2.587076399561058
            ],
            [
                -2.4244467299333134
            ],
            [
                -0.574388594275914
            ],
            [
                -2.940062383313003
            ],
            [
                -1.7212938186182833
            ],
            [
                -2.4102001325836384
            ],
            [
                -1.2310465429542683
            ],
            [
                -1.6505746784383641
            ],
            [
                -3.8697589288356897
            ],
            [
                -2.7595713666501664
            ],
            [
                -0.47894934550164003
            ],
            [
                -3.3487732989581427
            ],
            [
                -1.962111216034318
            ],
            [
                -2.446277399400143
            ],
            [
                -2.662706247567142
            ],
            [
                -4.4730335244742765
            ],
            [
                -1.225846625934802
            ],
            [
                -2.4287588778951923
            ],
            [
                -2.339337846391627
            ],
            [
                -1.2784590050182054
            ],
            [
                -2.8225119830842207
            ],
            [
                -2.004168610606816
            ],
            [
                -1.858442350840159
            ],
            [
                -2.8462865698265674
            ],
            [
                -1.5729547244485758
            ],
            [
                -2.161935743668432
            ],
            [
                -2.902698886105073
            ],
            [
                -0.3466316498265872
            ],
            [
                -2.44652258085608
            ],
            [
                -2.8737456187984227
            ],
            [
                -2.2165674190772626
            ],
            [
                -2.237480292884762
            ],
            [
                -3.03342255500152
            ],
            [
                -2.3866521723173117
            ],
            [
                -2.350147951168047
            ],
            [
                -3.048328274183405
            ],
            [
                -2.647558910645151
            ],
            [
                -2.4646122814285087
            ],
            [
                -1.7399660591587904
            ],
            [
                -1.7307563337511294
            ],
            [
                -3.207757946322163
            ],
            [
                -2.8350873042904126
            ],
            [
                -1.931983156951039
            ]
        ],
        [
            [
                0.1302382197130287
            ],
            [
                0.673049176646531
            ],
            [
                -0.389471760216962
            ],
            [
                -1.1534099250152878
            ],
            [
                -2.0110322391018
            ],
            [
                -2.6241861341595554
            ],
            [
                -1.015472707665857
            ],
            [
                -2.0830500459157695
            ],
            [
                -2.3036654199063764
            ]
        ]
    ],
    "weights": [
        [
            [
                -1.5440626413193574,
                -2.4436076705169762,
                -0.4065648409522999,
                -0.43206905712083526,
                -1.089049474615405,
                0.14589655679415314,
                0.5742923934013319,
                -1.6576883684782564,
                -1.9502586425166006,
                -0.4658537609559691,
                -0.5821605281557086,
                -0.3479118836027643,
                -0.5666966537593092,
                1.4802790035236375,
                0.7379319657868919,
                -0.12024012937847645,
                -0.023278769875773368,
                0.5200839777339902,
                0.8701005534037407,
                1.0591288496571716,
                0.16534513408501952,
                -0.22562526106526418,
                -0.872447483992706,
                1.9449067781269995,
                0.17299068387270627,
                -0.7506064234137002,
                1.0062360786230582,
                0.06530954028798565,
                0.3262647567183771,
                -0.3071457222641097,
                -0.28762220903342584,
                -0.9951515894426,
                -0.05653461971873833,
                -0.03194193912307794,
                1.1167409454573007,
                0.991518971884164,
                -0.12915092888181148,
                -1.1590852075546652,
                -1.5697589373831153,
                1.229152664315464,
                -2.8578946980067985,
                -0.2578684945145624,
                0.47872122864951283,
                0.15224234782225765,
                -0.5631809035615575,
                1.465080825563956,
                -0.06200469964820827
            ],
            [
                -1.2906574667502733,
                -0.7954592209142111,
                0.5755681828826388,
                -0.7193545734557806,
                -0.33352034958365206,
                0.7497665224896698,
                1.2895195957598273,
                -0.21552074309474706,
                -1.1842223188085246,
                -0.21090480064167477,
                0.1797161252794578,
                0.5462518113131378,
                1.6450405206065142,
                -0.716282041834088,
                0.18981852070205368,
                -0.6267463515411977,
                0.7050857275110842,
                -1.2110569610114466,
                0.8903542902366202,
                0.24518749831053607,
                0.23114375795902575,
                1.1218495539964202,
                -0.12231723450965967,
                0.7319120821124796,
                -0.4814587816544434,
                -0.9610261602973769,
                -0.8862319288367382,
                -0.39617199206825066,
                -0.9138551273221951,
                1.5203248908289528,
                -0.39017901916048514,
                2.135256183387843,
                0.1812961989275351,
                0.6054494599085025,
                0.6110865547769438,
                -0.6331999041627532,
                1.0616159505737313,
                0.08858847291693506,
                -0.049709764411597336,
                -0.07120581143937459,
                1.9985161076756908,
                0.03334988014084814,
                -0.4669106455540256,
                0.2983715560512523,
                -0.03926626844151343,
                1.0211163326112904,
                0.32404307515122677
            ],
            [
                -1.1960904821331757,
                -2.9241319247179884,
                0.21036688017910404,
                0.7018363462850163,
                -1.1626414057998742,
                1.256906919226946,
                -1.187896564953344,
                0.04623087787924314,
                0.07692432891707099,
                -0.25391615868030276,
                -2.3936048958679423,
                0.10861002182334052,
                -1.189579191562348,
                0.6113675089126682,
                0.3830817537297253,
                -1.5199984026313864,
                -1.7929522985899333,
                -0.6238652385656749,
                -0.8016228656949109,
                0.5412494621235879,
                0.443544252857528,
                0.521739525835703,
                0.8479354504395283,
                -1.2551586116968807,
                -0.6066542843578673,
                1.787860781501465,
                1.1276776291934092,
                0.40113474900590634,
                -0.38444629879572056,
                1.5188215184269174,
                0.2116284193091692,
                -0.5484819977493475,
                -0.7559274372958531,
                0.15021309224504692,
                0.7105410381195963,
                0.6239511002812238,
                -0.3089154300053028,
                -1.0998680819004667,
                -0.278864480161224,
                -1.0917003982609308,
                0.17576691934547062,
                0.1416301018461436,
                1.0702585577358223,
                1.8341921500961589,
                -2.1790133452595595,
                0.7675321013642233,
                0.05696853089363811
            ],
            [
                -2.0714837683376874,
                -0.12165060355314315,
                -0.3332915923273615,
                0.414472973087994,
                -0.9036228729786938,
                -0.04249737459262792,
                -1.5856078674170468,
                0.23520953533137,
                -1.3188204791839466,
                -1.0723523850388712,
                0.10966102655254438,
                -0.7158819632715195,
                -0.37529998909427603,
                -0.07453530663164591,
                0.3244856196779653,
                1.142699399714778,
                -0.7882228491772865,
                -0.7259689638192874,
                -0.0778529250241071,
                -0.07775806056364215,
                -1.1443765805455932,
                1.0741571312874036,
                0.29920128089441445,
                0.40439026115627935,
                0.5677952856931344,
                0.05377596110398878,
                -1.2212030242879814,
                0.05943462003228262,
                0.33018105415527443,
                0.6260208054897773,
                -0.4431918429101429,
                -0.17716431959406204,
                -1.3920265040111168,
                0.9502925562684252,
                0.19075170290134172,
                1.8992925167094956,
                -1.9107481565317486,
                0.5004894719423029,
                0.15552339388997266,
                1.0873043786928318,
                -0.35180597402728153,
                0.24332360056867053,
                -1.1887802051893583,
                -0.24344397513409938,
                0.16319874935035264,
                -0.5490678421027366,
                0.9290320532925822
            ],
            [
                -3.53823270807578,
                0.3319094539930871,
                -0.21216921280974385,
                -0.44321237774297434,
                -0.301079499592425,
                -0.8534394857502953,
                0.01880023181554297,
                -0.5131711645315269,
                1.772967467353033,
                1.6784327137389288,
                1.2358837622159042,
                -0.12118025411205369,
                -0.7250799879234583,
                0.4373226584996643,
                -1.241284932387316,
                -1.2241200393051552,
                -0.14338473315184105,
                0.026182368459028424,
                0.44106860767733175,
                -0.293528069916974,
                -0.4521050052467992,
                0.6192111989448075,
                0.3586201836444575,
                -0.5764983328355318,
                -0.9786175720540872,
                0.010713010143132218,
                -1.1040908075212936,
                -1.188640992695037,
                -1.1184427247381374,
                -1.3600352211394038,
                -0.8904859913370523,
                -1.0319481653502973,
                0.24617431232330686,
                -0.33946060581473503,
                -0.5586165300749983,
                -0.2846597134522342,
                -0.6982445534783509,
                -0.32058976116191107,
                -2.0571347908125137,
                -0.6970729340165789,
                -0.4232844059017641,
                -2.3870503258940867,
                -0.21356518203246658,
                0.8641932846990692,
                -0.4814915163796261,
                -1.7083888463461359,
                -0.1531044513393263
            ],
            [
                -2.6745193507124325,
                -0.08103512805087762,
                -0.1757076669933535,
                -0.8653646910110578,
                -0.3184412900399713,
                0.1049988266119506,
                0.7163889563331801,
                0.6367230858225894,
                -0.6548126957534126,
                0.5122888641766359,
                0.24935703408848156,
                -0.5257577066841602,
                0.6125748806072093,
                -0.45667333227593143,
                -2.20174471638437,
                -1.5935066235427344,
                1.184065393707971,
                1.936908688827239,
                -0.6269265376668417,
                1.6111058747829252,
                -1.876080333332272,
                0.2547394964094968,
                -0.7286480674059553,
                0.7079048627388789,
                1.0564672645295674,
                -0.21937923658614156,
                0.7170927554400391,
                -0.2668853921222076,
                0.3970806277709706,
                -0.21580581927411502,
                -0.34931095253351907,
                1.1272357530964976,
                -1.0211832234740754,
                1.4964143501124976,
                -1.706088233821973,
                0.898672978057745,
                -1.340516138200477,
                -0.36562762930345605,
                -1.8296034294729853,
                -1.012350983937568,
                0.7677678019671192,
                -0.9382814355604193,
                -0.3090811957981494,
                1.1456804777767435,
                1.000341134372687,
                -1.5850299157488996,
                -0.6757701848825172
            ],
            [
                -2.908863584319761,
                -2.2277513238879387,
                1.6956631950305496,
                -0.6621249789578918,
                -0.3584687060776206,
                -0.0381314575160565,
                -0.5921470952090151,
                0.3918622994515828,
                -0.7925000526213491,
                1.8943387336248474,
                -1.605179681930105,
                0.5671679731356153,
                -0.572323861721763,
                0.45498887515126657,
                -1.328422887678986,
                -0.5636796530214947,
                0.12990196302220788,
                -0.9295818189176903,
                0.5960598057061409,
                0.16088209281227334,
                -1.2084703049143608,
                -0.42648546213922467,
                -0.5507593312688636,
                1.1277827666124431,
                -1.2192168765155489,
                0.9210449792172395,
                -0.20159110412992576,
                -0.6245035004421768,
                -1.4776247501255173,
                0.31027267645335166,
                -0.04369229378597612,
                0.39307326419688443,
                0.7585145578779734,
                -0.051435775007893654,
                -0.4745645006176186,
                -1.123643841611651,
                -0.0986465634849875,
                1.1207231437562943,
                -0.15667122430128907,
                -0.2398031870392587,
                -1.0746162457388502,
                -1.8844072931424043,
                1.9781695841138978,
                0.8864674897966139,
                0.9452392949272523,
                -0.3572493302552578,
                0.04910324607906311
            ],
            [
                -1.8366773683311792,
                0.8327481738982973,
                1.722721283514594,
                -1.472913400377753,
                -0.14491158299192355,
                -0.014407765800625411,
                0.04454669634318971,
                0.417272600507677,
                1.45742647682135,
                0.4768038948001102,
                0.8506100994724576,
                -0.7180252476591207,
                0.19277827895017333,
                0.4539594326276186,
                2.3063000397866653,
                1.453058612653581,
                0.1570400124955495,
                -1.5253513107341723,
                -1.2241519636518938,
                0.16169979577485788,
                0.4654522523787873,
                0.8684693929198325,
                -1.607392988461526,
                -0.9737285488239518,
                -0.2559199922170931,
                -0.19011177225023843,
                -0.2810035743827852,
                -0.4106227125131337,
                -1.3340635427842642,
                -0.1164222892292099,
                -1.4025959843407856,
                0.4610234069558359,
                -0.18694227165996904,
                1.3158358344591512,
                -1.5119222493659412,
                0.7141116687180881,
                -0.9110479621911587,
                1.200487159034695,
                0.3909086520801282,
                0.467545444382196,
                -1.1742735256445334,
                -0.7339264484297068,
                1.5740642663284774,
                0.06731800088697444,
                -0.06813855087741093,
                -0.5538023255329749,
                -0.724967943118071
            ],
            [
                -1.8862662984079475,
                -1.9661202978749885,
                0.587727423464781,
                0.604040384083108,
                -0.5110042590173016,
                -2.0798033356241588,
                -0.06361727633052414,
                -0.18685794514664011,
                -0.3608397660638881,
                -0.15274758623394905,
                0.08436490677215013,
                -0.42539239259711714,
                0.2608169785041933,
                -0.0973881216037039,
                -0.8556549447869327,
                -1.3687936128913936,
                -1.2027141400949015,
                0.860796046536803,
                -2.015367287343131,
                0.11073742405347657,
                1.1645928134244723,
                -2.2437599238599373,
                0.12600913350502335,
                1.5291049333712803,
                0.5170067590349583,
                1.8976648964731004,
                -0.7498679963403805,
                0.432019198597063,
                1.1486896098173045,
                1.4898902146841284,
                1.6923516507352654,
                -0.2756125414479549,
                -1.2258806771409436,
                -0.6676136269169722,
                -0.523978939279209,
                0.33018549378758594,
                1.5976263404815614,
                1.1940334127334313,
                0.5745339447323996,
                1.2977949501651553,
                -0.7146655525249327,
                0.09706247995005012,
                0.3297915922119591,
                -0.7511132242062254,
                -1.15614135028903,
                0.3402062995325347,
                -0.5941433434099249
            ],
            [
                -1.597491608509908,
                -1.9336483426082005,
                -2.0043657252549893,
                0.87534822775207,
                0.16061417200977063,
                -0.5675380407988629,
                -0.37931966799903566,
                -0.610389544290543,
                -0.580892127184043,
                -0.6289295928631661,
                -1.38030234358113,
                0.2712408193982833,
                -0.9938398188010071,
                -0.543748971343757,
                0.35124230028268477,
                0.7957126672158303,
                -0.17139829098303722,
                0.22745523143530721,
                -0.8346012274815867,
                -1.7006212517880541,
                0.0756740563160881,
                1.5108141383054656,
                0.20848646513721342,
                0.9453996530498736,
                -0.6888873487984629,
                -1.7546860707369247,
                -0.628190833561739,
                0.5773100669429536,
                1.8186443878588234,
                -0.19149943879092912,
                0.7337115941223408,
                -0.45655301664971537,
                0.1528155140630307,
                -1.2557501925323058,
                -0.2614791041962963,
                0.9996104409681493,
                -1.0933295964139804,
                -1.031843082533363,
                -1.1701097412201833,
                -0.6091903187344971,
                -0.9356223167901097,
                0.5578970103814098,
                -2.680176943366259,
                1.0530328525903887,
                -0.6423862731212007,
                -0.8908634386991053,
                1.5871777410044527
            ],
            [
                -1.5965408338962175,
                -2.4629751205391286,
                -1.9364748021177731,
                0.5148123675988875,
                1.2983393925918147,
                -0.19919275761547844,
                0.41989039804529166,
                0.3753707259939829,
                -1.6351871247127676,
                -0.04142539072221487,
                -1.6718272493918998,
                -0.255524929737649,
                -0.4599110069680202,
                -1.621167631952853,
                -0.10364835070009412,
                -1.0956709637925661,
                -0.6667824283768826,
                0.03279474211430768,
                -0.7924221540173161,
                -0.4926318779077861,
                0.8297805396573285,
                -1.8387967900082374,
                0.3076369955070255,
                -2.0389865708223995,
                1.3233262033131088,
                -0.921418496159272,
                -1.9729466000655391,
                0.7627686473792776,
                0.23264229740902018,
                -1.1138155894749777,
                -2.036567936874379,
                -0.6294963368511876,
                -0.14154900197904696,
                0.7667402584614544,
                0.6144047847530266,
                -0.22621645990018152,
                0.3097949687668787,
                0.551944058596803,
                0.2908259024412136,
                0.7218414433144911,
                -2.8749882270864964,
                -0.03740183320031415,
                0.13748123580533927,
                1.4451746928610416,
                0.011168486259181518,
                -2.289821530688141,
                0.31107446589119514
            ],
            [
                -0.4634550039563193,
                -1.5895565775204115,
                2.956507102929301,
                1.2757484305437783,
                0.039897998023828846,
                2.08007209210512,
                -0.06337735487492278,
                0.3571301818884939,
                0.06581582157197027,
                -0.5160128796818158,
                0.1517821257861174,
                0.10653595940328882,
                0.35927551034502403,
                0.3534175408106019,
                0.8115093218277197,
                -0.7625549467635045,
                1.4076716403703398,
                0.4788715753032013,
                -0.9020123500561164,
                0.7750280724464343,
                -0.6510102287998354,
                -0.0343934930600938,
                -1.1447825570267074,
                0.37028916622089575,
                0.4070045960229967,
                -1.652454232666535,
                -0.9295136870004103,
                1.0094748136290255,
                0.5575964619026187,
                -1.2680239407431455,
                0.40538228329110587,
                -1.4604408302325207,
                -0.2864538685097113,
                1.1732506422615765,
                -1.1579064865356357,
                0.017422750610052776,
                -1.1022585320136447,
                -0.765556130326108,
                0.6784735979480696,
                -0.09850984214017271,
                -0.36621942032855115,
                -0.6386311729232742,
                -1.3187645378262407,
                -0.783845189442726,
                1.0403318523504208,
                -0.37814561046934764,
                0.9459506304881347
            ],
            [
                -2.8970361683427743,
                -1.413926055004342,
                -0.008406991179586746,
                1.039264595100994,
                0.2912025568989555,
                0.7025780279743673,
                1.7951019354447726,
                -0.02938510597263255,
                -0.5877970204973374,
                1.399877969022396,
                -0.07670944953251069,
                1.0834098356048523,
                -1.4410047517757139,
                1.6179891275489355,
                1.3964163529936928,
                0.3268645246808681,
                -0.3282289304453293,
                -1.019810818873336,
                -0.5175067169142062,
                -0.6455924157548468,
                0.2268934894378434,
                0.21509055510378042,
                1.1029142743738474,
                0.22216908566597074,
                -0.41489155957670326,
                -1.033900264700284,
                -0.2548092248018688,
                -1.0005142518638885,
                -0.5658577493208837,
                1.0887020781198335,
                -0.5869519748086218,
                -0.7788146502479653,
                -1.2050628299591462,
                -0.51568007953565,
                -0.07012471724632545,
                -0.715037801894913,
                1.2266756758326132,
                0.5900617139519637,
                -0.02896732025954473,
                -0.6898930243663478,
                1.4137027859966353,
                -1.8998210924710952,
                1.2255516885426512,
                -1.3634268198591564,
                0.3902273458066043,
                -0.19394842817609098,
                0.9378696733705134
            ],
            [
                -1.649900074603443,
                -3.6179608653262387,
                -0.9437170791789865,
                -1.891520234400481,
                1.5835374984326214,
                0.7272035287501694,
                -1.317205932841369,
                -2.2217922608224026,
                -0.3967101811117555,
                -0.14158114727056995,
                -1.3562441296193264,
                -0.44319659666484446,
                -1.1215354479269708,
                0.8572028861013683,
                -0.24831639818287227,
                2.8680597575117948,
                1.4746418100495498,
                0.46721692454518915,
                -1.184450301340535,
                -0.1632473405255927,
                -0.4604238413315742,
                -0.39318327408944426,
                -1.3272459956665488,
                0.6126660618446331,
                -1.952093774794195,
                -0.06974485706362804,
                -0.8568601126875324,
                -0.1159513587138604,
                -1.2858605424620582,
                -1.54050101480204,
                -1.2602643598146672,
                1.459851568378503,
                0.9356417372572587,
                -0.7822293846524628,
                -0.3981052847385293,
                0.4112619728127193,
                -0.33063830465683075,
                0.13626528856176157,
                -1.5305935870101761,
                1.6057531059804675,
                -0.14464561806234463,
                -0.9849390090481039,
                -1.4030542504887313,
                1.4518910485495895,
                -0.5758477303169385,
                -0.9633135918908978,
                -0.9039070305322815
            ],
            [
                -1.2538617255471638,
                0.5468591788433659,
                0.5380653017489002,
                -0.5601272683574582,
                -0.972621604415124,
                -0.9134365214082051,
                -1.0851234672137853,
                0.02281713733593611,
                -1.4911054609012406,
                0.8616132436588306,
                -1.0621539726580598,
                -2.55274896814672,
                0.25464842982565616,
                0.2123474165700969,
                -0.029573029633222933,
                -1.5959121829535443,
                -0.7672861550388536,
                -0.018466234702715318,
                -1.4786218402115814,
                1.3028792476745314,
                -0.38283600177362836,
                1.0116836543416432,
                0.7558031736131658,
                -1.7166231137617884,
                0.5658778643849954,
                -0.42239812574792934,
                1.861264084006936,
                -0.73130748103061,
                0.9883390968327442,
                -0.7056468602004309,
                -0.33300392005069746,
                0.09197248593270753,
                -1.3833291123855183,
                0.8346616129231581,
                -0.10572855668588804,
                0.16110652241874582,
                0.9797842385886983,
                0.6635309268080968,
                -0.6373610624822214,
                -2.3624588352158664,
                -0.5907023684824875,
                1.055104872649454,
                2.618137999963786,
                -1.1600850194992933,
                -0.2866027787805973,
                -1.151977355501194,
                -0.7868614191895144
            ],
            [
                -1.0871171039950571,
                -0.20083939968357215,
                0.6190576755622031,
                1.432229294053502,
                -0.8025499096906366,
                -0.27770110002959986,
                -0.6418058656842079,
                0.3342916452437076,
                -0.6143171694031804,
                1.3759878211465268,
                1.2722607451354704,
                0.3512248540668942,
                0.7976659469973477,
                0.9422125399914102,
                0.784440722984556,
                -0.5547247184438985,
                0.004903664972131417,
                0.9707971225591625,
                -0.00629794133182354,
                0.13517940916095694,
                -0.060202913785422967,
                -0.5573407477640492,
                -0.4697727992112416,
                0.37772741088292766,
                -0.8153106521504319,
                0.4627996171147782,
                -0.6660734058411324,
                -0.3439369427934336,
                0.04719203091595991,
                0.3725868433030308,
                -1.2208364955047109,
                -0.6997055701600728,
                -0.4625788998613223,
                0.8045850772646597,
                2.638377872860767,
                -0.4020195416643283,
                1.698706236205347,
                1.2938455836028637,
                -0.3943483932452519,
                2.60548690973011,
                -0.11044660634330353,
                0.5750059586027483,
                -0.2576024666412357,
                -1.4241296930976288,
                0.14437254190723148,
                -1.066581328717725,
                -1.7440381901155904
            ],
            [
                -1.6895206248598498,
                -0.10798235069214968,
                -0.9496146623805295,
                -0.720941646091319,
                0.11148421427134313,
                0.9867736807030294,
                -0.07610992131653482,
                -0.44828868390945464,
                -0.45456100770511365,
                -0.9552852170813129,
                -1.213387780839676,
                0.05062202205518374,
                -1.7029707107135348,
                -0.9590872760532042,
                -0.20271041606829884,
                -0.7631313321102409,
                0.6512182637122028,
                -1.1468913661787847,
                -1.0951616591184479,
                -1.0588724219804857,
                -0.4509570364115567,
                0.1448487193612361,
                0.40436739721564324,
                -1.2608891087768237,
                -0.9060202940013504,
                -0.6779445648743346,
                0.38572463592086925,
                -0.5198477285294053,
                1.7696214889552901,
                -0.005407756368736956,
                1.942069031419099,
                0.95719467506646,
                0.05662852300423354,
                2.3282165587593773,
                0.127613748316692,
                -0.6596949742957365,
                -1.1418583916885503,
                -0.19436524099586877,
                -1.7904000815996906,
                -0.7859178869844695,
                -0.18703304457496586,
                -1.4439762154200886,
                2.016278218736043,
                0.11955050929388317,
                1.2943518123907438,
                -2.3489228592231495,
                0.04818817808095981
            ],
            [
                -0.3535219968376405,
                -2.150229060906164,
                0.13944833964811065,
                2.4201028671055456,
                -0.49033777300508136,
                0.4416276422543786,
                0.6113564288287535,
                0.6568324932192108,
                0.6449981445748509,
                -1.4947597063439009,
                -0.9824431906323137,
                -0.027370718533743267,
                -1.3720257876611146,
                0.7462803593417083,
                0.534071588602267,
                -1.4664756725483963,
                0.6916628021727326,
                -2.685438439885561,
                -0.9796057173280853,
                2.3121791516648815,
                -0.4234266805902115,
                -0.32483145251391393,
                0.010654081882333487,
                0.3148187431359918,
                -1.2475785525523317,
                0.5706800773386563,
                -0.5884503556553821,
                -1.3624370335101301,
                -0.1794854666443916,
                -0.6829063042225693,
                -0.37930161632161535,
                -1.169155855540362,
                1.0401544710730475,
                -0.040644611618393826,
                -1.5028135846202357,
                0.11542332855913784,
                0.8149147966608377,
                -0.7435652762852969,
                -0.9703117280308117,
                -1.4852649416007062,
                0.6607334594607642,
                -0.3488138449685963,
                1.898884342585192,
                0.2975758542375543,
                -0.7773071654752403,
                1.3394140633170166,
                0.8942465572507448
            ],
            [
                -3.4965854327402752,
                0.16640493090468628,
                -0.6580294157253156,
                0.8604260265187038,
                -1.61901277188334,
                1.2429711316845324,
                -0.7439230460231496,
                -0.6652278447277281,
                -0.30435234262003547,
                -0.9813994405267087,
                -0.6088006791549381,
                -0.19346013750715188,
                0.20311669639882757,
                -0.18359332128532155,
                0.681438831779497,
                1.3328556055711893,
                -0.5913461540696207,
                -0.7651754133940031,
                0.30065002511113587,
                -0.33376158351856317,
                0.9165739674586232,
                0.4657274404036664,
                -1.1579136037106779,
                1.8126517471065655,
                -1.1578109284194331,
                0.1344910165835809,
                -0.4549319111011162,
                -0.2739593224996137,
                0.13000894073566002,
                2.9508588721671525,
                0.7396529685603604,
                1.2825035981607595,
                1.6020301207553613,
                -0.2042188238661297,
                0.4313512396373648,
                -0.07950471090757004,
                -0.5474240007596066,
                -1.8543666838331505,
                -1.1141506622929687,
                0.12873824946698215,
                0.22111587891987325,
                0.44862755829416023,
                -0.81623122899625,
                -1.1437322579865454,
                -0.6049006685940329,
                -0.2601493202038358,
                0.22545651235921313
            ],
            [
                -3.9731279478126225,
                -1.3706342184314848,
                0.6747249944980643,
                -1.5089053863425455,
                0.08951028493006147,
                -0.7705418799383397,
                0.7488047350692019,
                -0.15761842395623998,
                0.6230600742991491,
                -0.8620360355444384,
                0.8210684220236043,
                -0.5554366486626815,
                0.4755203036483686,
                -1.0519119381928745,
                1.2034456425831757,
                0.4746619122957514,
                -0.09244489862525863,
                0.22102220128527705,
                -0.5820863057757606,
                0.7298057411719716,
                0.3380741734651683,
                0.5172401933005005,
                -1.1568065721808767,
                0.43918680685181755,
                -1.0850178283785052,
                0.5746190697797435,
                0.5685447898365252,
                -0.35127315947681265,
                -0.12084457585416708,
                0.020398874372726136,
                1.375769818435963,
                0.9428218432996835,
                -1.7890160905697128,
                0.3181642467985912,
                0.299611728153618,
                0.20135043754513618,
                -1.0434227737978405,
                1.2477300023506206,
                0.45861465467111856,
                2.4769265480003595,
                -0.18934880220171113,
                0.5830303890726825,
                -0.2860520114679253,
                1.9194338084548945,
                -0.24884985379351313,
                1.5310995757723234,
                0.6697578855616231
            ],
            [
                -0.6438899291913964,
                -2.5477303777866136,
                1.9032686060481538,
                0.3404193740535031,
                -1.0115974998333874,
                1.4771899603985852,
                -0.4541180417172798,
                0.8966755853606837,
                -1.0537905730229984,
                1.9101715923724403,
                -0.07486725927940896,
                0.33192596112934847,
                -0.8821752526280832,
                -1.6435272071207987,
                0.3186250885852427,
                0.787196259097081,
                0.8718628798429159,
                -0.9311627900937759,
                -1.9953403447614622,
                -1.6942799286017858,
                0.26449952185017583,
                0.3923890206747743,
                -2.1205117073399764,
                -1.2650735965821926,
                1.8080393878859236,
                0.34504373772658997,
                1.6414435377813594,
                -0.9388180006082918,
                0.249199092859765,
                -0.029478797932786575,
                -0.5580965419710898,
                -0.6794828574139654,
                1.2267175039994453,
                -1.3335411694877612,
                -0.5616786166509667,
                -0.01301566790198574,
                -0.19235881283804537,
                1.3842260041423973,
                -1.6610972140384253,
                2.623161065647999,
                0.19533770066427086,
                0.6265581765291256,
                1.0198843328861837,
                -0.06967992634728946,
                -0.02091092115315209,
                -0.947851681110757,
                -0.5508382389389267
            ],
            [
                -2.8116921600433202,
                -1.806764052628132,
                -0.05431801865958731,
                1.8237267115125926,
                2.4377731752674623,
                -0.39838626678916067,
                -1.7039986890654815,
                -1.0011558945261696,
                0.3638880425850256,
                2.204783408230392,
                0.5763743881544316,
                2.520836882618073,
                0.09268690237269916,
                -0.05771735796784078,
                -2.349658357007846,
                -1.3485226483854678,
                -0.45974993039310263,
                -0.9779097997258254,
                0.29640036952848825,
                0.3341756409255194,
                2.316121018522095,
                -0.5203636760040168,
                -1.1123868658454856,
                0.2348259903576781,
                0.39015036765937816,
                -0.5263887353493705,
                1.0616131689172685,
                -1.3732324768862536,
                -1.4993845989443113,
                0.529149563923697,
                2.7047646811208574,
                -0.5129454874316292,
                -0.6330295370290573,
                -0.814476903128124,
                0.3707347376056784,
                2.1347556485266033,
                -0.4305312065403429,
                -1.6719899816333605,
                0.19560803483608818,
                0.3734533601497905,
                0.8353270121400798,
                0.28566702439902625,
                0.37695195593636843,
                0.5210194253238266,
                0.5010128992047063,
                -0.3645208202214657,
                -0.7438259650664346
            ],
            [
                -1.9747281104468655,
                -0.5025663905072882,
                0.6114303976481036,
                -0.5567158421464082,
                0.23287202485883451,
                -0.4646439225219694,
                0.5739611084876296,
                0.9472072588180306,
                -0.9598570799821652,
                0.2561102041700276,
                0.8875778464525552,
                -0.049848080683187426,
                -0.2589538682525747,
                0.012983995600494652,
                1.590122977786858,
                -0.20189027433980208,
                -0.13498982847597718,
                -2.103153545387577,
                -1.14995942877062,
                -1.1652716619260794,
                -1.3790823090222104,
                -0.1675797694085432,
                0.7047028730895929,
                -1.9886502983501384,
                0.09555355127248001,
                0.9411156719003286,
                0.2325528435949191,
                -1.3655137395659385,
                -0.6284828604062318,
                -0.05665577079345414,
                -1.8803308807175478,
                -1.709396421560373,
                -0.3204793291613548,
                -0.8202074487913429,
                0.5631932982939534,
                0.17748463919674468,
                0.23204210686494148,
                0.1534296581750381,
                0.6968884895207249,
                -0.8876916390308132,
                -0.08281868375679244,
                -0.5920813142046104,
                -0.9975134209827317,
                -0.2956024560124831,
                -0.9141573326897148,
                1.3217661256375415,
                2.6073816725468144
            ],
            [
                -2.9025461625032416,
                -1.2015250649971438,
                -0.0013896393746269603,
                0.5661299358284461,
                -1.4966451086757755,
                0.2448096333799331,
                0.14800662562323239,
                0.8537973407640997,
                1.2611316037423907,
                -0.0790453013823867,
                -0.18287960788386665,
                -0.6544700881492466,
                -0.13180477618904005,
                -1.4155294035029018,
                -0.7635610226525448,
                1.0087143175678828,
                -0.6983819159854683,
                1.1267731453792065,
                -1.6592832979716392,
                -0.8491436136698562,
                -1.637415170048545,
                -0.19110868972622708,
                1.0955475848950271,
                -0.6638389398683068,
                -0.46784320034911797,
                0.36648095945646797,
                1.5256293873229119,
                -0.4395783583099325,
                -1.9946880100800655,
                0.5505980790903968,
                0.32705760447265836,
                0.31066252447887305,
                0.5214313684856003,
                0.8985964793351651,
                -1.265277861477954,
                -1.652900999185972,
                -1.1150296036685978,
                1.8108870646225461,
                -0.5739150844217803,
                0.5408054123704419,
                -0.21647641130890868,
                0.4856096326238727,
                0.2654867745333306,
                -1.2386673745433987,
                -0.6783797281922963,
                -0.6899326470550424,
                -0.10284216698208713
            ],
            [
                -2.472568185090954,
                -2.1153123812781285,
                1.2738252083916517,
                -0.2667483939324176,
                -0.34907079551033876,
                0.005459086492453554,
                0.0004721071573850024,
                1.3129328441978056,
                0.3361815483223227,
                -1.7377454785654707,
                1.1567410575602106,
                0.0036709447918777645,
                3.00572242581555,
                -0.5669706996274763,
                -0.35510800514981594,
                -0.8039373352692966,
                -2.4242489372558533,
                -1.3483422044205873,
                -0.861628216765071,
                0.8080077254647156,
                0.4956958140505194,
                0.6113761679264702,
                -1.0566696836066722,
                -3.1361386280760866,
                0.9981745746204603,
                1.1976460106533628,
                -0.7378881540055889,
                0.8492862221481026,
                0.1870801113723918,
                1.9496898361341428,
                -1.4046363368220895,
                -0.18044283410181974,
                -1.1057533263632686,
                -0.7486231575633318,
                -0.6058869768099182,
                -1.0508470449322944,
                -0.24336345865074582,
                -0.9287990172007995,
                -1.41376616409956,
                -0.5295443428057096,
                2.702637882847822,
                -0.23409503726454067,
                0.9177356451744852,
                0.9405676914466183,
                2.5527463651048667,
                -0.7343257757052832,
                0.11757429449392393
            ],
            [
                -1.3540135297983356,
                1.2945905353388836,
                -0.7135911421607456,
                -0.36076143299627605,
                -0.6737189653567729,
                2.1672129463538004,
                -1.8311352507870102,
                0.13556545514018065,
                -0.2897691902691379,
                -0.5234079041522425,
                -0.06533228168763343,
                -0.28888645566807913,
                -0.08263909674601472,
                0.10113863659045264,
                -1.5045945010813537,
                1.3549142820200457,
                1.0410799487711244,
                1.0089766210479238,
                -0.36714731428978864,
                -0.20806131128869834,
                -1.0172394628403403,
                -0.7466013650708954,
                -1.5178330899690633,
                0.46791372183691093,
                -0.12079649350884937,
                -0.18563651359988725,
                -0.43649216100762306,
                -0.2636700795803401,
                -0.043095127932287466,
                -0.7526667191554655,
                0.5996940056906601,
                -0.7143218869359371,
                0.41197953334313975,
                0.3946765188552128,
                -1.4891312286676701,
                -0.9314506737049756,
                0.2190981072259909,
                0.16486903158519745,
                0.14422259868525117,
                -0.11720861987300821,
                1.6638648759415466,
                1.365429193900676,
                0.7131646467269362,
                0.5909410787810063,
                -0.10709752106509182,
                0.38587933994744894,
                0.3040272752694524
            ],
            [
                -0.6123185116357758,
                -0.5849285728516838,
                0.44068596663823845,
                0.5877800996802491,
                1.1942337130937726,
                -1.680699851707909,
                -0.28382576953202227,
                1.899823827995989,
                -1.5649986403845944,
                0.8763377884188301,
                -0.08355107422364269,
                0.005423633730746643,
                0.34162678580348893,
                -1.4020299602563087,
                -0.7022180825525584,
                0.5229444256496941,
                0.6768010177201906,
                -0.4851773415469943,
                -1.0255645509879607,
                1.9503506419725343,
                0.4103356961669439,
                0.2073633335097107,
                -1.8662062656026426,
                -0.6460273385553621,
                -2.1928621263815096,
                -1.7244253059823005,
                0.018157972555940774,
                -0.05026641293780982,
                0.4663250399866497,
                -2.494021417468911,
                -0.50141146679339,
                0.8918404308859227,
                1.093490092403559,
                -0.27524020818202155,
                1.1152173051570902,
                0.49282147432622936,
                0.4612921382403427,
                1.4560822817179773,
                -0.44036506131551373,
                0.7069752035429852,
                -0.7672082003195605,
                -1.2242352874320772,
                -0.349065137001666,
                1.89248645452241,
                -1.1042216004756573,
                -1.1975809557512396,
                1.1826088204387049
            ],
            [
                -3.378634617829749,
                -2.0003861180039904,
                -0.17653950199581142,
                0.44337634339102916,
                -0.7296055865585791,
                -0.8932566354593866,
                -0.8408208117260392,
                -0.576002820817569,
                1.699812479193667,
                0.33637437446025736,
                -0.05803288883981105,
                -0.7705108660787371,
                1.7705452158819088,
                -0.3581063417651456,
                -2.0856547445942595,
                0.023238219931207074,
                0.6877667061829122,
                1.8564003367234485,
                -0.19755060509991276,
                0.39984800118139663,
                0.8951897077680824,
                0.10010455738415193,
                -0.8406160230909512,
                -1.2880348852215477,
                0.5781946348546075,
                1.041472599875071,
                -0.8764885511187184,
                0.4351888575112503,
                -1.578343010845285,
                -1.0705630864112707,
                -0.6564980174747687,
                0.5700861346912435,
                -0.04959921331575207,
                1.049056080009027,
                0.16554313134901338,
                -0.39416688342916867,
                -0.5583643991503339,
                1.6290647709048138,
                -0.7922615041920317,
                -0.2784675848121721,
                -0.9972743921853318,
                -1.3095898387279152,
                1.2563846279710464,
                0.5360402966426385,
                0.3404148882705107,
                1.8320994724658874,
                1.3059649407327218
            ],
            [
                -1.143601960443927,
                -0.4735213931946101,
                -1.2513103422298726,
                1.5133653571474162,
                -0.6197812973570772,
                -0.34202212689099165,
                -0.3052347891329105,
                0.025704134221683845,
                0.07948107880756304,
                0.25681350784762597,
                1.0830257431482102,
                0.5009533491581208,
                -0.16576399638423273,
                -0.92882710000434,
                -0.7267560836500675,
                1.825083125147602,
                -0.3825396224092359,
                -0.0759335294102263,
                0.2543126685227132,
                1.1986055746182092,
                1.2559074789122493,
                -0.24664868349882732,
                0.6999251257543058,
                1.192844172116283,
                1.0571265597791897,
                0.15781624747610543,
                -0.31718378729245444,
                -0.5214111629327906,
                0.5904876168705281,
                0.24243639126459568,
                0.060844780698452665,
                0.28517005250605265,
                -0.629114614302941,
                2.117048265703468,
                0.8158045303251507,
                0.30793191974806605,
                2.2635011258706856,
                0.2629978382024489,
                -0.9997404658507903,
                1.5683396990424032,
                0.9851228223867529,
                -1.3106602220651185,
                1.4439748484940194,
                0.256034151172245,
                -0.2771313643109413,
                -0.11538018405920832,
                -0.7816468896773199
            ],
            [
                -2.3605752222702323,
                -0.9037902023665552,
                1.947399151386785,
                -0.42215741270085094,
                0.1840428429080424,
                -1.5931310379280152,
                -0.7737328728820607,
                -0.18391754442848074,
                -0.07574579970812369,
                -0.11455376217691221,
                -2.298482983817129,
                -0.4317493526050079,
                0.8488172899751681,
                0.4625915873263867,
                0.5233520938783616,
                -0.25640242461524554,
                -1.0197173587247224,
                0.3027761560024111,
                0.13649628245520767,
                -1.0836656397598885,
                -0.6908120540961896,
                0.23747782254317923,
                -1.1595349676792432,
                -1.6990137709565614,
                -0.33762969099751583,
                -0.615444399315564,
                0.3955351320162664,
                0.2709042901309276,
                -0.129431198333745,
                -0.005312168133356538,
                -0.8129850666646807,
                -0.2343325758271949,
                1.207220913342574,
                -1.725180971928461,
                0.05376304095665517,
                -0.548706488540215,
                1.2258867378901641,
                0.31728510120944653,
                -1.3059255130283058,
                0.7384452253879052,
                -1.2182503258516948,
                1.1324371516988279,
                -0.627991558368589,
                -0.38500526429833837,
                0.19092154932525218,
                -0.4643653600948615,
                1.0870685550848609
            ],
            [
                -1.7998893079680682,
                -0.34031477589499687,
                0.21533909071617247,
                -0.408851023207205,
                -1.171036170029747,
                -0.48006983165875267,
                -0.34016008763593514,
                -0.09491658100584098,
                0.7835252461174721,
                0.8223047666608376,
                0.1119110871228227,
                0.35991034098593805,
                -0.15470652061431694,
                0.05172123736732635,
                0.13812672818197574,
                -0.9310290021345814,
                0.25287507141437354,
                -1.7207584354870542,
                1.2782810880619382,
                1.2421318705895532,
                1.953435887247869,
                0.889239649026851,
                0.24523901673919613,
                0.821889181304821,
                -1.4103887617699555,
                -0.7501806850163156,
                -0.1585236693146278,
                -0.3365960777957335,
                0.5125834630525476,
                0.49572778019211305,
                -1.9805400582076553,
                0.23511237213660013,
                1.3404348169269422,
                1.5179019459106504,
                -0.6831754920541746,
                0.5463674879255972,
                1.759901682019118,
                -0.8076851214867975,
                -0.7192800055997975,
                1.9231662260025295,
                0.07663555443264483,
                0.715571832242511,
                1.5576580952465844,
                0.2937063641760939,
                -0.6002840075040494,
                -0.004412355434026686,
                -0.7393262183305618
            ],
            [
                -0.6593390875705265,
                -0.43413479758801377,
                0.24249822014311748,
                -1.8467862251785352,
                -0.39285843301188056,
                -0.6364389224401075,
                -0.614742263753483,
                -1.677838121411463,
                0.4641706661372537,
                -1.507510115705582,
                -1.3398182547069075,
                2.078135751003797,
                0.0837768923641518,
                -0.35493127487102405,
                -0.326984819876959,
                -0.18393861250400872,
                -1.8038800012714045,
                1.3405636827454306,
                -1.2085628181111525,
                0.2852808743648514,
                -0.5237468953185129,
                0.5188482279370759,
                -1.2521791826400595,
                1.2510376139646116,
                0.3624950904936971,
                1.527263338870825,
                -0.187762013157441,
                -0.03846500193287381,
                -0.25010044426917105,
                -0.09438808860488097,
                -0.01254966025066337,
                -0.2884543627061915,
                -0.5489584742101135,
                0.731479879131897,
                -0.3321298258527068,
                -0.1530046417363347,
                -1.9194745770390262,
                1.5059540952616668,
                -1.0575825132044747,
                -0.11364272936308584,
                -0.09428024956575742,
                1.5929016320889406,
                -1.0656030620240784,
                0.07833095359067863,
                -1.3615293116367486,
                0.10403481979996378,
                2.4736563486702416
            ],
            [
                0.030823493001772707,
                1.8033933144413723,
                -1.9411111879394587,
                -0.2068063818867524,
                -0.00036466965557540795,
                0.04991703074584688,
                -0.21430464534659335,
                -1.0409340013460389,
                -0.01713341941738219,
                -0.20903389577417955,
                0.545652633665995,
                0.49488502030305614,
                0.20842477979963211,
                0.09427023534629447,
                0.8540885270208842,
                -1.1464100206738577,
                -1.299710690385817,
                0.7204210328743665,
                -1.1996208588265238,
                0.6700504036807888,
                -0.6522677400904928,
                -0.7061273928994075,
                0.5189136761473453,
                -0.18365356247737458,
                0.2683358491350946,
                0.6166454441503167,
                0.08686347198136755,
                0.6549526904546239,
                0.7101960786765965,
                0.5448702701733371,
                -1.6253453114739596,
                0.09176512608492217,
                -2.4500493552918607,
                -1.9253735261889329,
                -0.09438350952391218,
                1.6991486929120336,
                -1.3568602009617006,
                -1.079003972670606,
                1.3107405521064148,
                2.5812328318732742,
                0.4418558553681455,
                -0.5404294108913721,
                -0.12185160575493417,
                0.14612657689843503,
                -0.06652131817963644,
                -0.08700150443593707,
                1.9953311435219245
            ],
            [
                -2.2892736984840787,
                -2.1503040785696457,
                1.6631342837183685,
                -0.35232365117630904,
                0.6089466068940419,
                0.03975380813747689,
                -1.3821823651989895,
                -1.0589725848904759,
                -0.4951068632974027,
                -1.2294161469383065,
                -0.804918191600288,
                -0.10366310806480562,
                1.1392232760707894,
                2.005649297845478,
                0.0003473676301049102,
                -0.5678609263582357,
                -0.7101579863846225,
                1.4230791719914855,
                -1.5883891180505123,
                0.11934008861064765,
                -0.42729115651216676,
                0.4278202007784595,
                0.6598152399746599,
                -0.12800205466254566,
                0.7434501649392002,
                -0.7937437144593367,
                -0.6446459357805937,
                -0.39954114495143195,
                -1.0162452092163137,
                -0.8150764279902284,
                0.10402933017019363,
                -0.17750209284575177,
                0.14492818991471682,
                -0.995251527889347,
                -1.0664470993334256,
                -0.11074246509513885,
                1.8650978183829807,
                -1.1661848409400952,
                0.5354436319362014,
                -0.07970717534470004,
                0.761009345006654,
                0.815415856643135,
                -0.44248946609711315,
                0.5181557793145369,
                -0.2188315638009756,
                -2.0149701198905827,
                0.1424735729234794
            ],
            [
                -1.9843839616254693,
                -1.3222304525138533,
                1.1754206039688628,
                -0.017891984758762337,
                -2.0065388593160733,
                0.13395147368204705,
                -1.5640331797002345,
                -0.430960942057027,
                -0.4709113181690289,
                0.24299562821123916,
                -1.97661947983996,
                -0.128567105929781,
                0.5305521830603188,
                0.36884944990891017,
                -0.2961787134119457,
                -0.27599387670010345,
                0.43176428338360895,
                -1.1652923378648985,
                -0.9853561086501864,
                0.4537940967044432,
                0.35447209780007033,
                -0.031693310975460534,
                0.8608664468964893,
                0.10934744927108488,
                -1.2640593542320042,
                2.941479146979064,
                -0.5597805971781616,
                -0.18951919070450213,
                -0.8520999989137823,
                3.0942538085287508,
                -0.532319306634726,
                -0.12345212203911032,
                1.8467413474046894,
                0.2764224280371354,
                0.3521122567055929,
                0.40664489050454644,
                1.4266177174834178,
                -0.4992483903542937,
                1.9053746721705158,
                -1.4950988907140526,
                0.704753037658939,
                -1.5477367181460657,
                0.5808104503991611,
                -0.8436355243335707,
                -0.3673126856021729,
                1.188406399988157,
                0.7064723686393001
            ],
            [
                -0.7883655293034864,
                -1.7498236013881954,
                -0.5428754260617736,
                0.8885217633658564,
                -0.8948528285769719,
                0.04856624506087894,
                0.19970902712204563,
                -0.4095451647004788,
                -0.3461879263757952,
                -0.18348279867561598,
                -0.8643013089135192,
                0.12179538638438366,
                0.39380128129876635,
                -1.80843981791345,
                -0.93124979594182,
                -1.3104240656786934,
                0.2010757673103932,
                -0.10400959849578086,
                1.2534145504625054,
                -1.0798130508228796,
                0.015233380738862183,
                -0.6942608598924115,
                -1.4427274110324384,
                0.1282304549324244,
                -1.3147662649722867,
                -0.1380408572440266,
                -1.0851550123180036,
                1.4191514771746907,
                -0.8917586471210833,
                1.3176816047822844,
                -0.6717938393912571,
                -0.19537503251896712,
                1.020204043607262,
                1.3186304687898678,
                -0.5712764509770364,
                0.3628332807995869,
                -0.7497396501083716,
                -0.07275494967412244,
                -0.11898944588667454,
                -0.9725788807878386,
                0.16499961222421095,
                1.19258354946851,
                2.7158832247942426,
                0.8799129991940523,
                -0.8147338312337468,
                0.8099717696721399,
                -1.208954629086392
            ],
            [
                -2.2316223141936056,
                -1.830140143157227,
                0.11511510649597083,
                -0.7366713265256186,
                -0.8214855735709249,
                0.44484773574140407,
                0.03852468276290709,
                -0.9210189101175001,
                0.3625161169696215,
                -1.3487194626199495,
                -1.3179832958077018,
                0.5795636713830629,
                0.6120072847704544,
                1.9719066899753412,
                -1.566708188572382,
                1.1526269157225009,
                0.8591572699610774,
                0.1436982870900885,
                -0.22125425585255146,
                -0.04955382505322052,
                -0.1337985846085112,
                0.03831535712061468,
                -0.8236300901675675,
                -0.5515235355603029,
                0.5096020101745867,
                -0.7303671521022125,
                0.7213743133608264,
                -0.41664624323568383,
                -1.3869931978447365,
                0.5939443029258055,
                0.948807910270369,
                -1.2217901766829158,
                0.22122207716838505,
                -2.2496621206534235,
                -0.5612005272832084,
                0.7711753319346522,
                -0.10020493446578135,
                2.1334361254694256,
                0.3897028920408795,
                -2.49324886757222,
                0.5785407954963863,
                2.6514795895373044,
                0.08235222141296611,
                -1.0298325624924176,
                -0.7353864858477283,
                -1.7191658298423729,
                -0.32390804426775266
            ],
            [
                -1.8001067291189818,
                0.9151859955840178,
                -0.9457588044922849,
                0.10587295597951263,
                -0.8860918008485827,
                1.6044033365004287,
                0.0794124200148701,
                -1.7544818032195184,
                -2.131918457146889,
                0.5669749983206425,
                -1.47927361724262,
                -0.8835743767534993,
                1.5568461999359662,
                -1.8529410893467257,
                -0.11250413619570897,
                -0.7646462531692473,
                0.20337760737753616,
                -0.10489856193690568,
                0.006781670958863957,
                -0.6273333945038096,
                0.03816069252736064,
                -2.445481722526861,
                -1.351115372335257,
                -0.1560207944213602,
                -1.4167408137071766,
                -0.8049832384040101,
                0.7120149241915515,
                1.786209416112157,
                -0.8097825494248593,
                0.29388055118589573,
                -0.7808559029317458,
                -0.725778585517515,
                0.8037593147249252,
                -0.3328363564795885,
                0.22014837692992326,
                0.7516533257292236,
                2.2049239400238556,
                -1.0074658149922473,
                -0.4766327403049553,
                0.907784199189898,
                0.9428803268438557,
                -0.1414026593637039,
                -0.6586600386286078,
                0.169621478409867,
                -1.7505982343815927,
                0.3515929165288109,
                -2.2163439358393457
            ],
            [
                -0.8800002931648884,
                -1.0633902130884147,
                -0.6309129098423002,
                -0.1854450118594472,
                -0.9448077907812699,
                -0.08948534479843206,
                0.6060903860238641,
                1.0004952846224173,
                0.42673843125954336,
                -0.09314848352108814,
                0.11691138049554128,
                -0.0054112969925450725,
                1.1011822773695963,
                -0.944646396573598,
                0.5318829847155677,
                1.1343522233054024,
                0.43944780859024185,
                -0.37179515592509704,
                0.5740955157797728,
                0.24862283262977525,
                0.0637474474740041,
                -0.8867070444468916,
                -1.3231972124004268,
                0.13625392563908192,
                -0.21388050794991348,
                -1.8540841018528675,
                -1.6127773285691422,
                -0.05621528939880827,
                -0.05256651147994876,
                -0.33626617104047524,
                -0.35233737000579934,
                0.28480192087762546,
                -0.7832002028802364,
                0.057232974353852294,
                0.39486293716944604,
                0.7455849906647659,
                0.21540509475877578,
                -0.6537644699414873,
                0.93540168314523,
                1.026124772903656,
                -0.04794717860226551,
                0.6847726643266594,
                -0.07894749706008596,
                -0.17300176299456013,
                1.3455766354821304,
                1.0261164356384935,
                -0.6734419094975255
            ],
            [
                -1.8428904696249628,
                -1.6846095402580354,
                -0.3211889415491793,
                0.14860520136915972,
                0.33889716349842625,
                -0.08304022135486556,
                -0.24165241859903164,
                -0.09786543376796615,
                -0.051466783066449556,
                0.43319529069870305,
                1.015685682449617,
                -0.6240189150605208,
                -0.48950078711657796,
                -0.270648629432559,
                -0.1421182496289593,
                -0.045619956269505206,
                -1.6588069782345012,
                -0.41670212268749884,
                1.548324997395633,
                -0.5180701666079103,
                0.39805117417128855,
                0.032414950845231896,
                0.6098614063767155,
                -0.122703576197884,
                -0.16902703335607552,
                -0.8647269185007779,
                -0.16328079442176224,
                0.12032921851220602,
                0.40978283584977176,
                -0.429565769807676,
                0.46501538507347984,
                0.6819963832403722,
                -0.4022417391214251,
                1.1300792864400726,
                0.30193448632217745,
                0.8333964856455456,
                0.3726057655960701,
                0.2972884618901158,
                -0.5795000086720882,
                -2.727068647281002,
                0.5748647856075172,
                0.08056327387004528,
                -1.6680724831021967,
                0.5919876167029662,
                -1.026827509158895,
                0.2704002464217746,
                -0.012368452053759197
            ],
            [
                -1.6417547822747098,
                -0.6442006599212164,
                0.2698003540886462,
                0.25884434482983254,
                0.26236403323027513,
                -0.6568917262406253,
                1.4084883264170083,
                1.6873876164175068,
                -1.4727857932061101,
                0.7927601989798431,
                1.2300799407688148,
                0.3931882766637165,
                0.7031682238333057,
                -0.17544798691449093,
                0.7782626383969701,
                -0.5541652106370208,
                2.141562768541513,
                1.7094053798853115,
                -2.966517398622194,
                -0.508052276788095,
                -1.780474748069522,
                -1.6216794353046058,
                -0.8234912464117429,
                0.42983253938718086,
                0.24748097115163586,
                -0.7810575289689847,
                0.3569259634863366,
                -1.1849596265472726,
                -2.517255499489058,
                -0.1366725670718633,
                -0.24046465511558782,
                -1.0605019328128107,
                0.8760280650792439,
                -0.1194008922172732,
                0.7075281426969131,
                -1.334448509771299,
                1.3991693153552307,
                1.2911080376830308,
                0.005378598869248141,
                0.7422183581054927,
                -0.3259031708608186,
                0.061651069553584174,
                1.0899688949622017,
                -1.2174017258352186,
                -0.3798076348632474,
                2.9857257762995917,
                -0.7982251125377772
            ],
            [
                -2.7532395535307614,
                -1.2631758066646976,
                0.5514249911221123,
                -0.7433258713445797,
                0.1745445878670339,
                -0.3090090769705754,
                -0.4577124889556398,
                -0.17062969732582123,
                -0.19495869332263893,
                0.09034536079689984,
                0.7936821120844937,
                1.1227912152503463,
                -0.16734990552678833,
                -0.10547275125515596,
                -0.6709665561809901,
                -1.3239482289570035,
                0.28277962393302,
                0.13922502697896547,
                0.6667338881765233,
                1.6739504531805955,
                -0.8870428693496721,
                0.7821884839072203,
                1.8944191357104776,
                0.4684015550323664,
                0.3531491330442213,
                2.60559268805852,
                -0.06487428514204274,
                -0.6373413919146054,
                -0.20785310729370146,
                -1.395802176147574,
                -0.844105851849086,
                -0.23795873903646178,
                0.24780702978166536,
                0.28811492095963553,
                -0.20421356244359615,
                0.007857853495983474,
                0.22626520965786578,
                1.235874172789744,
                -0.3882532867087344,
                0.22129029420175034,
                1.3638480099510972,
                -1.0838324994350395,
                -0.9552632140628501,
                0.5709707317633381,
                2.0124428679074917,
                -0.17998528770041874,
                0.21037939392253
            ],
            [
                -1.1248351385011268,
                -0.3140600333596781,
                0.025185312697609888,
                0.08539643948241182,
                -0.31436074156537186,
                -0.17449337184851973,
                -0.5178397471176828,
                0.37713438159433293,
                -0.4519485531910432,
                -0.320266602268909,
                0.026751887841088937,
                1.2757902708221611,
                -0.6408517293787439,
                -0.1849359300548509,
                -0.060754547317433655,
                -0.392246004151265,
                -0.14511058592478174,
                0.28249920364371545,
                -2.637674051178135,
                1.548928991483143,
                -0.6576654605378518,
                -0.29699401099805256,
                0.5724340552292159,
                -1.8664985991196714,
                -0.2737072010317578,
                1.0283443886995642,
                0.994759154993313,
                -0.33930680938353625,
                -0.06901255719097152,
                -0.9454769715953925,
                -0.552481366584944,
                -1.6419321929067185,
                -0.13817618850195207,
                -0.6106025370125461,
                -1.8207883102007403,
                -0.08445605824918959,
                0.8801339215005405,
                0.4358962872152732,
                -2.4483110037381923,
                1.783761012648198,
                -0.44958309938051016,
                0.7744686448084929,
                0.6064647123414765,
                0.5357407810783668,
                1.7696092635780873,
                -0.18327156915057316,
                0.42706482424917563
            ],
            [
                -0.49139557199282646,
                -0.030111074559568077,
                -0.7878225975140618,
                -1.6125376987641817,
                1.8503206327027468,
                -1.6655260548169846,
                1.4356166222647977,
                -0.4300043571494127,
                -0.17620102753222178,
                -0.587584032773543,
                -0.310598814963559,
                -1.8307938674526159,
                1.5810759959263314,
                2.8755638660126617,
                0.13923851485479144,
                0.49832381494241235,
                1.70104494405039,
                -1.1971181850345312,
                -0.12267168841453646,
                -1.440376472238487,
                0.9419921461103031,
                -0.4928548396498077,
                -1.0918161204832557,
                -0.05725543654823569,
                -1.9030598675191386,
                -0.4003326252253324,
                -2.175045998720549,
                -1.1804845529759571,
                -0.6664896185540706,
                -1.213990365500676,
                -1.4265609415397835,
                -0.5363342464497176,
                -1.5175776155001763,
                -0.21500561772771148,
                0.6143194488538213,
                -1.9811543509295833,
                -0.3783366114734456,
                -0.8819831951760418,
                -1.035945826711971,
                -0.8802524534353969,
                0.3343140121483961,
                -0.3852322531519779,
                1.4462488722996594,
                -1.5331880469558283,
                -0.3763284929106033,
                -0.36805368698642216,
                -1.0254463304851569
            ],
            [
                -3.773924565558028,
                -1.220295940680745,
                -0.5887684771006814,
                -1.6081321577891683,
                -0.5986713906027102,
                -0.11029357259040216,
                -0.07412549455799788,
                -0.43154149450574575,
                -0.13133292096027627,
                0.7114941391236352,
                0.5817625606954281,
                -0.5017530726966484,
                -0.028275793467283157,
                0.726797122952827,
                -0.6639247094870911,
                0.3069506167528196,
                0.16553185875245946,
                -1.0703143810001114,
                -1.3958732038570112,
                -0.40436578225044173,
                1.5321941734578348,
                -1.1464892821677977,
                -1.1690320956639635,
                -0.36271684664849224,
                0.5554776555406107,
                -1.4425231727652656,
                -0.8290998768209931,
                0.2388556138774742,
                -0.24444038036342225,
                -0.28858326169985665,
                -0.15354474931860704,
                -0.9894845385520918,
                -1.3300246653344587,
                0.5459341690186964,
                1.4339781017947628,
                1.257317259709902,
                0.9424625576161092,
                0.10246108165260139,
                0.42918004700981716,
                0.1915402342365417,
                0.9850300553934052,
                -0.9924234353848774,
                0.4655183548042361,
                0.1654150173375334,
                0.42992276557041037,
                1.8919883350708644,
                0.7778983392992419
            ],
            [
                -1.5569145073781814,
                -0.08283726610866787,
                0.9552930773598401,
                0.055068052357991816,
                0.8369615803916836,
                -0.47027830451318964,
                0.06092304805268233,
                0.008887771439998998,
                -1.0675727299273599,
                0.6066902406517904,
                0.7272054718515628,
                -0.4909825514218129,
                -2.146230705434777,
                -0.5684258018219377,
                0.2132394887870736,
                -0.46890014142657166,
                -1.2813518332292906,
                0.4440286879940384,
                0.030477182987724255,
                -0.5541601511194884,
                0.20394752726799456,
                0.28480000408788847,
                0.1567166748918525,
                -0.6335823128848111,
                -1.0890273169519231,
                -0.7533583826435295,
                1.8443373096653133,
                1.0315986435058724,
                -1.1762283672592277,
                0.8990994879339287,
                0.5806502436332848,
                0.09184545307270581,
                1.1353803633822113,
                0.5130775149974782,
                -1.0186758577634178,
                -1.297606576568264,
                0.03972520084895566,
                0.9203116642310807,
                1.9698686979873978,
                0.5857546344330885,
                -1.274925033083454,
                -0.48062610076108725,
                -1.1128250187973605,
                0.21904519185137,
                -0.6264008841067963,
                1.8948641773785195,
                1.6313511292981149
            ],
            [
                -1.9956963803262866,
                0.029927282461771995,
                -0.9265310030725462,
                -0.8466108547830731,
                -1.2781489956266319,
                -0.8322679906395302,
                -0.5229888767605129,
                -0.9588606432179553,
                0.5737573820207283,
                -0.4175259538058523,
                -0.12681553371874418,
                -2.29252752932867,
                0.05579271193557077,
                -0.5283833542651035,
                0.6560465365805402,
                -1.2168489373085543,
                0.1598572365878227,
                2.943025893595898,
                0.8600564478594235,
                0.04702860237186532,
                1.6941829282546907,
                1.3188006722910375,
                -1.8349977324157505,
                -0.3807602259228869,
                0.21382822160439932,
                1.212342164886505,
                1.8977830133575866,
                0.7316583367016382,
                0.21430868036478137,
                -1.0462594474404365,
                -0.2192062950164617,
                -1.1161934683018382,
                -0.11440870643969447,
                -0.4899000363502241,
                -0.2928231429572136,
                -0.4902083577591999,
                1.488721876437112,
                0.23888422982128774,
                0.31307636011890716,
                -0.15322080299618945,
                -0.7947246783586123,
                0.6293772239452873,
                -0.45483037674333243,
                1.81269501860921,
                1.5627797783545725,
                1.3903590274000819,
                -0.5170474469108954
            ],
            [
                -2.1483934820807353,
                -0.05344436772824415,
                0.10833452760601044,
                0.16416186676287545,
                1.0574331722207875,
                -1.40904702440562,
                -0.8630607084949832,
                -0.5034022656860238,
                -1.4903972840011657,
                1.5885925629627018,
                -0.5528363120235456,
                -0.8478887816900139,
                -0.6348123119491796,
                -1.5115757951777418,
                0.1410353272735833,
                -1.074194811795377,
                -0.6734971962753481,
                0.4690942869873094,
                0.7570211614668854,
                0.565982332708873,
                -1.2034284629054401,
                -0.656586870131337,
                1.7235841742436842,
                0.6880733976760899,
                -0.6283316385932606,
                -1.6120623299737487,
                1.210981309682169,
                -2.807335221774921,
                1.222187482828808,
                -0.998899625827973,
                -1.9131707120810162,
                1.0408163980924192,
                3.0801265630928145,
                -1.2496631657787785,
                -0.19375724517105286,
                -0.6355623074816866,
                -1.6571624284639601,
                0.4160416624846607,
                1.3048146692173224,
                0.0783501096001849,
                -0.29277721195781137,
                -1.6230525984117485,
                2.4077348352374774,
                1.2940864700821146,
                2.997244095073935,
                1.3533555142778761,
                1.0796961186658547
            ],
            [
                -2.963468717584937,
                -0.7347829171365725,
                0.04111750674882066,
                -0.021569436151541693,
                -0.7624162993002493,
                0.8755903008666815,
                -0.23096944269310604,
                0.5457401991756652,
                -0.8154420985120207,
                0.8189081048346283,
                0.5171149230356219,
                0.6655626059755357,
                0.20691466355290047,
                -1.7763412660735047,
                0.5095646395195134,
                1.289866065377518,
                1.0256713706924334,
                -0.46423748118568325,
                -0.4157697190378782,
                -0.36485027742172194,
                -0.8696644474322679,
                1.7465285504681562,
                -0.16214169893056501,
                0.3414138256444671,
                -0.05336353990368912,
                -0.5988009449236636,
                0.44344406103820894,
                -1.480336417259481,
                -0.15767294898281517,
                1.302364766801581,
                -2.265839887711934,
                0.7333051606451417,
                0.6187245499717794,
                0.49714709711169025,
                -0.6798200822925967,
                -0.3069986631386976,
                1.0209787397612688,
                -0.6641352063951698,
                0.20150121701201937,
                1.602802443664044,
                -0.6179449671961872,
                0.5465624746876776,
                0.21096186304021053,
                -0.1715336021368427,
                -0.3120152193158349,
                0.1784912285502215,
                0.09444472114153181
            ],
            [
                -1.3714727826289086,
                -1.5881336236415557,
                -0.4599483756767141,
                -0.8604089739300964,
                -0.5799956840017573,
                0.5962487017227291,
                2.4885592366086375,
                -0.571316468308171,
                1.0173769006921376,
                -0.32413535199597937,
                -0.36584320405973,
                0.2548424490143717,
                0.4762193460107843,
                -0.35055822352557964,
                0.9398839859063041,
                -0.5952911168972255,
                -0.4494062989066754,
                -1.098933543575482,
                -0.9804039312139256,
                0.6825653472985214,
                -1.3359104355745182,
                -2.136685633674741,
                2.1737648314665763,
                1.5786556762777244,
                0.7724800906094803,
                -1.0196928291322813,
                1.9930797939701315,
                0.9206692424101351,
                0.4843869423388141,
                -0.48706337734914196,
                -2.330273991636963,
                0.08725286936029371,
                -0.006828175716673617,
                0.7010160594030768,
                -1.3246274303240237,
                -0.9310915214684349,
                1.1390772306873869,
                -0.23320041786860243,
                0.5997386170129976,
                0.08276315054612499,
                0.6380653053283797,
                -0.8706910339343575,
                0.44902933741989415,
                0.7820720312824222,
                -2.2145774477925397,
                1.2775674084455224,
                -0.8814603996585286
            ],
            [
                -1.172379943547752,
                -2.0871894347837765,
                0.5194060034387211,
                -1.1900023814694423,
                -0.5854886620324702,
                3.1939199190063623,
                -0.30866188158626046,
                0.604090009529277,
                -1.4975850271762066,
                -0.08134819111888648,
                1.5646755128147702,
                0.31022195046476264,
                0.12661109806974857,
                0.3162804490122259,
                -1.3748762173446494,
                0.12323841201585345,
                1.1535893471682603,
                0.3448021501126644,
                -0.8006938132189466,
                0.1421245324379338,
                0.9944061224095159,
                -1.5224803603423416,
                1.8932524705463387,
                -1.16869789706991,
                0.19092736104186153,
                -1.3702373995679744,
                -0.5130805663796627,
                0.8641849263771937,
                0.7461931319819716,
                0.704236250516778,
                0.27108354087214737,
                -1.543967910736401,
                -0.9079438285959475,
                -0.44329866251369693,
                0.3466530951081781,
                -1.5252413549672765,
                -0.9092492688748138,
                -1.3509566642028144,
                0.739502955933166,
                -0.3990383449562199,
                0.45912398657742814,
                -0.680270549809464,
                0.09323516642412594,
                0.7216536282622509,
                1.7284953710178392,
                0.05394058480484918,
                -0.44113652642882867
            ],
            [
                -1.1987850946569607,
                -2.3029957504840572,
                -0.38561495796234957,
                0.48574571089290314,
                -0.572097793880134,
                0.715595101139825,
                -0.06846109761162418,
                0.6779722358829311,
                -2.1790529746584784,
                -0.2540005334114274,
                -1.9430976555981534,
                -0.20573223624954595,
                -1.7410846976840695,
                -1.3824266011272819,
                -1.2827185155222671,
                1.706861783022749,
                -1.1807198892391606,
                0.09336699292102746,
                -0.3813835651059007,
                -0.02189441216632031,
                -0.15772388273643267,
                -1.0525088351996494,
                0.11546119601112532,
                -1.064603746433929,
                1.303848713346828,
                -1.934963943488387,
                -0.43510233261826786,
                0.5782989743486635,
                2.66043394868633,
                -1.386440187459978,
                0.99199076195848,
                -1.4184059129232227,
                -1.1690868998608395,
                -0.32138523190749213,
                -1.658144754338005,
                1.3481666446611387,
                2.3207769896177117,
                -0.32149359779091924,
                -2.6273091860789544,
                0.37731851037224406,
                -0.0881140368834483,
                1.080253110811029,
                -1.1812583655110824,
                -1.5586210171476487,
                0.04592757181532398,
                -0.9538003986210294,
                1.5443148405019766
            ],
            [
                -0.2710877114680622,
                -1.114705144386004,
                0.9265658653885303,
                0.25045303614417147,
                0.428641906910513,
                0.7877931093742362,
                0.1957353072911805,
                -1.4427974634712688,
                -0.2217368242268621,
                2.582777908170504,
                -1.1757107165057075,
                0.2972441268976943,
                -1.4740101676511403,
                -0.8233937306392405,
                -0.19150801033626805,
                -2.0295144129869715,
                -1.5497418441711825,
                2.733267853375689,
                1.519031225695753,
                0.4853722555234148,
                0.5254688454085964,
                -0.2478354260675701,
                0.2355952916631413,
                2.409585379873944,
                -1.5300242342539,
                0.08742267083837008,
                -0.05957034642147403,
                0.1400800640835795,
                -0.8641375596401998,
                0.688898533228753,
                2.102281200994574,
                1.7782863842970713,
                -0.702513046531596,
                -0.7527082883213473,
                -0.1454812681408102,
                1.1999632918297438,
                -0.7992077426201615,
                0.8079229165108727,
                -2.826354080673341,
                -1.3828283911122192,
                0.2222679440391289,
                -1.858461898617331,
                -1.0404778004137125,
                0.3572196134347312,
                0.8521696038535075,
                0.32928079692351564,
                -0.1737725962039424
            ],
            [
                -1.7058430970305143,
                -0.5424829957177278,
                0.9140695271403245,
                0.45830575942006385,
                0.9946324642375215,
                0.01193831878761866,
                -0.8168236953071648,
                1.6160612466789985,
                -0.3390246118612302,
                -0.7921373547835325,
                -0.1376681774181814,
                -0.8534423937200787,
                -0.17857545295395885,
                2.320529424168895,
                -0.7613873223550726,
                1.7807225628294454,
                -0.49134884880546287,
                -1.6202782830712472,
                0.9291711148430444,
                -0.3065251611059172,
                1.0608836982072534,
                -0.5647507525795348,
                0.6607490716194101,
                -1.4681539524344327,
                -0.7257353769362536,
                -0.5005033762740801,
                -0.19083588643433105,
                -1.2185882624845839,
                0.020907762571024075,
                -1.2479079428710615,
                -0.3112325230456462,
                -1.3666549322393144,
                0.14951587008120504,
                -1.5060154990963517,
                0.020556835075907828,
                1.709195670330431,
                -2.0280615960603408,
                -0.6232825994175498,
                -0.19875802677865065,
                0.6841291578972624,
                0.01848577526517074,
                -0.6829232994361208,
                -0.8634511175794236,
                -0.7128138881740098,
                -0.06940500429569058,
                -0.04283720587758016,
                1.1146654667807177
            ],
            [
                -0.711565913013549,
                -1.380205536056706,
                -1.3585058486200463,
                -0.7638161449503115,
                -0.33885890941004415,
                1.5262632903460327,
                0.6183425887578691,
                -0.7975502302599139,
                -0.7525709274787148,
                -1.8848508945962827,
                -0.20255567077323133,
                -0.3221818358775051,
                -0.6096725966716454,
                1.658136548760488,
                -0.5153886697748298,
                -1.7749727862467795,
                -0.19218348736205082,
                0.34025694735189443,
                0.08078495180714693,
